<?xml version="1.0"?>
<opencv_storage>
<cascade>
  <stageType>BOOST</stageType>
  <featureType>HAAR</featureType>
  <height>46</height>
  <width>38</width>
  <stageParams>
    <boostType>GAB</boostType>
    <minHitRate>9.9500000476837158e-01</minHitRate>
    <maxFalseAlarm>5.0000000000000000e-01</maxFalseAlarm>
    <weightTrimRate>9.4999998807907104e-01</weightTrimRate>
    <maxDepth>1</maxDepth>
    <maxWeakCount>100</maxWeakCount></stageParams>
  <featureParams>
    <maxCatCount>0</maxCatCount>
    <featSize>1</featSize>
    <mode>BASIC</mode></featureParams>
  <stageNum>5</stageNum>
  <stages>
    <!-- stage 0 -->
    <_>
      <maxWeakCount>3</maxWeakCount>
      <stageThreshold>-1.1642202138900757e+00</stageThreshold>
      <weakClassifiers>
        <_>
          <internalNodes>
            0 -1 2 3.4361548721790314e-02</internalNodes>
          <leafValues>
            -9.3163174390792847e-01 5.9633028507232666e-01</leafValues></_>
        <_>
          <internalNodes>
            0 -1 7 -1.4753682771697640e-03</internalNodes>
          <leafValues>
            8.0927473306655884e-01 -8.1044465303421021e-01</leafValues></_>
        <_>
          <internalNodes>
            0 -1 8 3.6873918026685715e-02</internalNodes>
          <leafValues>
            -9.5540678501129150e-01 5.7785624265670776e-01</leafValues></_></weakClassifiers></_>
    <!-- stage 1 -->
    <_>
      <maxWeakCount>4</maxWeakCount>
      <stageThreshold>-2.0416097640991211e+00</stageThreshold>
      <weakClassifiers>
        <_>
          <internalNodes>
            0 -1 0 1.0091081261634827e-01</internalNodes>
          <leafValues>
            -9.2982459068298340e-01 6.9533169269561768e-01</leafValues></_>
        <_>
          <internalNodes>
            0 -1 12 1.0236984491348267e-01</internalNodes>
          <leafValues>
            -8.2667714357376099e-01 7.5616806745529175e-01</leafValues></_>
        <_>
          <internalNodes>
            0 -1 9 -6.8649989552795887e-03</internalNodes>
          <leafValues>
            4.8472258448600769e-01 -8.0342489480972290e-01</leafValues></_>
        <_>
          <internalNodes>
            0 -1 3 1.7161577939987183e-02</internalNodes>
          <leafValues>
            -7.6983070373535156e-01 6.5822887420654297e-01</leafValues></_></weakClassifiers></_>
    <!-- stage 2 -->
    <_>
      <maxWeakCount>3</maxWeakCount>
      <stageThreshold>-1.1321740150451660e+00</stageThreshold>
      <weakClassifiers>
        <_>
          <internalNodes>
            0 -1 11 2.2029641550034285e-03</internalNodes>
          <leafValues>
            -8.5151004791259766e-01 1.</leafValues></_>
        <_>
          <internalNodes>
            0 -1 4 7.4907347559928894e-02</internalNodes>
          <leafValues>
            -7.8742110729217529e-01 7.0616525411605835e-01</leafValues></_>
        <_>
          <internalNodes>
            0 -1 6 4.7889411449432373e-02</internalNodes>
          <leafValues>
            -9.9217307567596436e-01 5.0675719976425171e-01</leafValues></_></weakClassifiers></_>
    <!-- stage 3 -->
    <_>
      <maxWeakCount>3</maxWeakCount>
      <stageThreshold>-1.3459931612014771e+00</stageThreshold>
      <weakClassifiers>
        <_>
          <internalNodes>
            0 -1 5 3.7009540945291519e-02</internalNodes>
          <leafValues>
            -9.5137047767639160e-01 1.</leafValues></_>
        <_>
          <internalNodes>
            0 -1 1 -4.3693941552191973e-04</internalNodes>
          <leafValues>
            1. -8.3617091178894043e-01</leafValues></_>
        <_>
          <internalNodes>
            0 -1 13 -7.7761888504028320e-02</internalNodes>
          <leafValues>
            -9.9379992485046387e-01 4.4154825806617737e-01</leafValues></_></weakClassifiers></_>
    <!-- stage 4 -->
    <_>
      <maxWeakCount>2</maxWeakCount>
      <stageThreshold>1.5287769958376884e-02</stageThreshold>
      <weakClassifiers>
        <_>
          <internalNodes>
            0 -1 14 2.3031607270240784e-04</internalNodes>
          <leafValues>
            1. -9.8471224308013916e-01</leafValues></_>
        <_>
          <internalNodes>
            0 -1 10 -6.2346635386347771e-03</internalNodes>
          <leafValues>
            1. -9.7073620557785034e-01</leafValues></_></weakClassifiers></_></stages>
  <features>
    <_>
      <rects>
        <_>
          0 3 12 33 -1.</_>
        <_>
          6 3 6 33 2.</_></rects>
      <tilted>0</tilted></_>
    <_>
      <rects>
        <_>
          0 3 24 2 -1.</_>
        <_>
          0 4 24 1 2.</_></rects>
      <tilted>0</tilted></_>
    <_>
      <rects>
        <_>
          0 21 14 5 -1.</_>
        <_>
          7 21 7 5 2.</_></rects>
      <tilted>0</tilted></_>
    <_>
      <rects>
        <_>
          0 30 18 15 -1.</_>
        <_>
          0 35 18 5 3.</_></rects>
      <tilted>0</tilted></_>
    <_>
      <rects>
        <_>
          1 0 12 29 -1.</_>
        <_>
          7 0 6 29 2.</_></rects>
      <tilted>0</tilted></_>
    <_>
      <rects>
        <_>
          3 18 15 20 -1.</_>
        <_>
          8 18 5 20 3.</_></rects>
      <tilted>0</tilted></_>
    <_>
      <rects>
        <_>
          8 16 30 9 -1.</_>
        <_>
          18 16 10 9 3.</_></rects>
      <tilted>0</tilted></_>
    <_>
      <rects>
        <_>
          10 9 8 3 -1.</_>
        <_>
          10 10 8 1 3.</_></rects>
      <tilted>0</tilted></_>
    <_>
      <rects>
        <_>
          11 1 11 24 -1.</_>
        <_>
          11 13 11 12 2.</_></rects>
      <tilted>0</tilted></_>
    <_>
      <rects>
        <_>
          12 1 12 33 -1.</_>
        <_>
          16 1 4 33 3.</_></rects>
      <tilted>0</tilted></_>
    <_>
      <rects>
        <_>
          14 25 24 8 -1.</_>
        <_>
          14 29 24 4 2.</_></rects>
      <tilted>0</tilted></_>
    <_>
      <rects>
        <_>
          16 1 5 3 -1.</_>
        <_>
          16 2 5 1 3.</_></rects>
      <tilted>0</tilted></_>
    <_>
      <rects>
        <_>
          18 7 18 32 -1.</_>
        <_>
          24 7 6 32 3.</_></rects>
      <tilted>0</tilted></_>
    <_>
      <rects>
        <_>
          21 15 16 26 -1.</_>
        <_>
          21 28 16 13 2.</_></rects>
      <tilted>0</tilted></_>
    <_>
      <rects>
        <_>
          22 12 2 4 -1.</_>
        <_>
          22 14 2 2 2.</_></rects>
      <tilted>0</tilted></_></features></cascade>
</opencv_storage>
