<?xml version="1.0"?>
<opencv_storage>
<cascade>
  <stageType>BOOST</stageType>
  <featureType>HAAR</featureType>
  <height>46</height>
  <width>38</width>
  <stageParams>
    <boostType>GAB</boostType>
    <minHitRate>9.9500000476837158e-01</minHitRate>
    <maxFalseAlarm>5.0000000000000000e-01</maxFalseAlarm>
    <weightTrimRate>9.4999998807907104e-01</weightTrimRate>
    <maxDepth>1</maxDepth>
    <maxWeakCount>100</maxWeakCount></stageParams>
  <featureParams>
    <maxCatCount>0</maxCatCount>
    <featSize>1</featSize>
    <mode>BASIC</mode></featureParams>
  <stageNum>7</stageNum>
  <stages>
    <!-- stage 0 -->
    <_>
      <maxWeakCount>3</maxWeakCount>
      <stageThreshold>-1.4001003503799438e+00</stageThreshold>
      <weakClassifiers>
        <_>
          <internalNodes>
            0 -1 3 5.7790093123912811e-02</internalNodes>
          <leafValues>
            -8.9662724733352661e-01 6.8181818723678589e-01</leafValues></_>
        <_>
          <internalNodes>
            0 -1 13 1.2898588320240378e-03</internalNodes>
          <leafValues>
            -7.9668593406677246e-01 4.2835772037506104e-01</leafValues></_>
        <_>
          <internalNodes>
            0 -1 2 -5.6377574801445007e-02</internalNodes>
          <leafValues>
            -9.3183082342147827e-01 3.1780430674552917e-01</leafValues></_></weakClassifiers></_>
    <!-- stage 1 -->
    <_>
      <maxWeakCount>4</maxWeakCount>
      <stageThreshold>-1.5565875768661499e+00</stageThreshold>
      <weakClassifiers>
        <_>
          <internalNodes>
            0 -1 11 4.3731786310672760e-02</internalNodes>
          <leafValues>
            -8.6024713516235352e-01 7.5999999046325684e-01</leafValues></_>
        <_>
          <internalNodes>
            0 -1 22 -1.8441808223724365e-01</internalNodes>
          <leafValues>
            9.7955626249313354e-01 -5.7162034511566162e-01</leafValues></_>
        <_>
          <internalNodes>
            0 -1 15 1.7089217901229858e-02</internalNodes>
          <leafValues>
            -5.8981013298034668e-01 6.6639405488967896e-01</leafValues></_>
        <_>
          <internalNodes>
            0 -1 16 2.6037902571260929e-03</internalNodes>
          <leafValues>
            4.6509003639221191e-01 -9.4166004657745361e-01</leafValues></_></weakClassifiers></_>
    <!-- stage 2 -->
    <_>
      <maxWeakCount>3</maxWeakCount>
      <stageThreshold>-1.2405977249145508e+00</stageThreshold>
      <weakClassifiers>
        <_>
          <internalNodes>
            0 -1 19 3.1312063336372375e-02</internalNodes>
          <leafValues>
            -9.1689497232437134e-01 3.9495798945426941e-01</leafValues></_>
        <_>
          <internalNodes>
            0 -1 23 -1.5594097971916199e-01</internalNodes>
          <leafValues>
            9.3566632270812988e-01 -6.6061317920684814e-01</leafValues></_>
        <_>
          <internalNodes>
            0 -1 10 -4.3146919459104538e-02</internalNodes>
          <leafValues>
            -9.7494250535964966e-01 3.5554477572441101e-01</leafValues></_></weakClassifiers></_>
    <!-- stage 3 -->
    <_>
      <maxWeakCount>4</maxWeakCount>
      <stageThreshold>-1.4636666774749756e+00</stageThreshold>
      <weakClassifiers>
        <_>
          <internalNodes>
            0 -1 4 -1.7204381525516510e-02</internalNodes>
          <leafValues>
            4.4444444775581360e-01 -9.0463340282440186e-01</leafValues></_>
        <_>
          <internalNodes>
            0 -1 14 -8.6400713771581650e-03</internalNodes>
          <leafValues>
            7.8880101442337036e-01 -6.5006554126739502e-01</leafValues></_>
        <_>
          <internalNodes>
            0 -1 8 5.1873875781893730e-03</internalNodes>
          <leafValues>
            -5.1968491077423096e-01 7.8951686620712280e-01</leafValues></_>
        <_>
          <internalNodes>
            0 -1 21 1.8719793297350407e-03</internalNodes>
          <leafValues>
            -5.8785444498062134e-01 6.1071711778640747e-01</leafValues></_></weakClassifiers></_>
    <!-- stage 4 -->
    <_>
      <maxWeakCount>4</maxWeakCount>
      <stageThreshold>-1.4141941070556641e+00</stageThreshold>
      <weakClassifiers>
        <_>
          <internalNodes>
            0 -1 7 4.0429593063890934e-03</internalNodes>
          <leafValues>
            -8.8189315795898438e-01 6.7213112115859985e-01</leafValues></_>
        <_>
          <internalNodes>
            0 -1 12 5.0771012902259827e-03</internalNodes>
          <leafValues>
            -6.4943301677703857e-01 8.6505097150802612e-01</leafValues></_>
        <_>
          <internalNodes>
            0 -1 18 2.1974584087729454e-03</internalNodes>
          <leafValues>
            -4.8156771063804626e-01 1.</leafValues></_>
        <_>
          <internalNodes>
            0 -1 20 -2.8393263928592205e-03</internalNodes>
          <leafValues>
            -8.1926476955413818e-01 5.9869980812072754e-01</leafValues></_></weakClassifiers></_>
    <!-- stage 5 -->
    <_>
      <maxWeakCount>4</maxWeakCount>
      <stageThreshold>-1.6665214300155640e+00</stageThreshold>
      <weakClassifiers>
        <_>
          <internalNodes>
            0 -1 6 7.6421285048127174e-03</internalNodes>
          <leafValues>
            -9.2247384786605835e-01 1.</leafValues></_>
        <_>
          <internalNodes>
            0 -1 17 -1.1176036205142736e-03</internalNodes>
          <leafValues>
            1. -7.8754055500030518e-01</leafValues></_>
        <_>
          <internalNodes>
            0 -1 1 6.7851995117962360e-03</internalNodes>
          <leafValues>
            -6.4380997419357300e-01 1.</leafValues></_>
        <_>
          <internalNodes>
            0 -1 0 5.8207716792821884e-03</internalNodes>
          <leafValues>
            6.8730300664901733e-01 -8.6757534742355347e-01</leafValues></_></weakClassifiers></_>
    <!-- stage 6 -->
    <_>
      <maxWeakCount>2</maxWeakCount>
      <stageThreshold>2.7149321977049112e-03</stageThreshold>
      <weakClassifiers>
        <_>
          <internalNodes>
            0 -1 9 1.1870512738823891e-02</internalNodes>
          <leafValues>
            1. -9.9728506803512573e-01</leafValues></_>
        <_>
          <internalNodes>
            0 -1 5 -4.2092844843864441e-02</internalNodes>
          <leafValues>
            -9.9639153480529785e-01 1.</leafValues></_></weakClassifiers></_></stages>
  <features>
    <_>
      <rects>
        <_>
          0 18 38 18 -1.</_>
        <_>
          0 18 19 9 2.</_>
        <_>
          19 27 19 9 2.</_></rects>
      <tilted>0</tilted></_>
    <_>
      <rects>
        <_>
          1 6 9 25 -1.</_>
        <_>
          4 6 3 25 3.</_></rects>
      <tilted>0</tilted></_>
    <_>
      <rects>
        <_>
          1 10 29 32 -1.</_>
        <_>
          1 26 29 16 2.</_></rects>
      <tilted>0</tilted></_>
    <_>
      <rects>
        <_>
          2 1 30 10 -1.</_>
        <_>
          2 6 30 5 2.</_></rects>
      <tilted>0</tilted></_>
    <_>
      <rects>
        <_>
          2 8 29 10 -1.</_>
        <_>
          2 13 29 5 2.</_></rects>
      <tilted>0</tilted></_>
    <_>
      <rects>
        <_>
          3 0 16 46 -1.</_>
        <_>
          3 0 8 23 2.</_>
        <_>
          11 23 8 23 2.</_></rects>
      <tilted>0</tilted></_>
    <_>
      <rects>
        <_>
          5 29 26 10 -1.</_>
        <_>
          5 34 26 5 2.</_></rects>
      <tilted>0</tilted></_>
    <_>
      <rects>
        <_>
          6 34 20 6 -1.</_>
        <_>
          6 37 20 3 2.</_></rects>
      <tilted>0</tilted></_>
    <_>
      <rects>
        <_>
          7 3 30 6 -1.</_>
        <_>
          7 5 30 2 3.</_></rects>
      <tilted>0</tilted></_>
    <_>
      <rects>
        <_>
          8 0 15 7 -1.</_>
        <_>
          13 0 5 7 3.</_></rects>
      <tilted>0</tilted></_>
    <_>
      <rects>
        <_>
          8 2 26 42 -1.</_>
        <_>
          8 16 26 14 3.</_></rects>
      <tilted>0</tilted></_>
    <_>
      <rects>
        <_>
          11 1 17 8 -1.</_>
        <_>
          11 5 17 4 2.</_></rects>
      <tilted>0</tilted></_>
    <_>
      <rects>
        <_>
          11 30 10 16 -1.</_>
        <_>
          11 30 5 8 2.</_>
        <_>
          16 38 5 8 2.</_></rects>
      <tilted>0</tilted></_>
    <_>
      <rects>
        <_>
          11 34 20 6 -1.</_>
        <_>
          11 37 20 3 2.</_></rects>
      <tilted>0</tilted></_>
    <_>
      <rects>
        <_>
          12 0 4 15 -1.</_>
        <_>
          12 5 4 5 3.</_></rects>
      <tilted>0</tilted></_>
    <_>
      <rects>
        <_>
          12 0 8 16 -1.</_>
        <_>
          12 8 8 8 2.</_></rects>
      <tilted>0</tilted></_>
    <_>
      <rects>
        <_>
          12 14 19 24 -1.</_>
        <_>
          12 22 19 8 3.</_></rects>
      <tilted>0</tilted></_>
    <_>
      <rects>
        <_>
          13 30 8 6 -1.</_>
        <_>
          17 30 4 6 2.</_></rects>
      <tilted>0</tilted></_>
    <_>
      <rects>
        <_>
          15 40 8 6 -1.</_>
        <_>
          15 43 8 3 2.</_></rects>
      <tilted>0</tilted></_>
    <_>
      <rects>
        <_>
          16 0 14 12 -1.</_>
        <_>
          16 6 14 6 2.</_></rects>
      <tilted>0</tilted></_>
    <_>
      <rects>
        <_>
          19 19 8 8 -1.</_>
        <_>
          19 23 8 4 2.</_></rects>
      <tilted>0</tilted></_>
    <_>
      <rects>
        <_>
          20 21 9 9 -1.</_>
        <_>
          23 21 3 9 3.</_></rects>
      <tilted>0</tilted></_>
    <_>
      <rects>
        <_>
          22 4 15 42 -1.</_>
        <_>
          27 4 5 42 3.</_></rects>
      <tilted>0</tilted></_>
    <_>
      <rects>
        <_>
          22 5 15 40 -1.</_>
        <_>
          27 5 5 40 3.</_></rects>
      <tilted>0</tilted></_></features></cascade>
</opencv_storage>
