<?xml version="1.0"?>
<opencv_storage>
<cascade>
  <stageType>BOOST</stageType>
  <featureType>HAAR</featureType>
  <height>46</height>
  <width>38</width>
  <stageParams>
    <boostType>GAB</boostType>
    <minHitRate>9.9500000476837158e-01</minHitRate>
    <maxFalseAlarm>5.0000000000000000e-01</maxFalseAlarm>
    <weightTrimRate>9.4999998807907104e-01</weightTrimRate>
    <maxDepth>1</maxDepth>
    <maxWeakCount>100</maxWeakCount></stageParams>
  <featureParams>
    <maxCatCount>0</maxCatCount>
    <featSize>1</featSize>
    <mode>BASIC</mode></featureParams>
  <stageNum>6</stageNum>
  <stages>
    <!-- stage 0 -->
    <_>
      <maxWeakCount>3</maxWeakCount>
      <stageThreshold>-1.4278475046157837e+00</stageThreshold>
      <weakClassifiers>
        <_>
          <internalNodes>
            0 -1 6 -9.4842419028282166e-02</internalNodes>
          <leafValues>
            6.1165046691894531e-01 -9.1696429252624512e-01</leafValues></_>
        <_>
          <internalNodes>
            0 -1 9 3.6434233188629150e-02</internalNodes>
          <leafValues>
            -9.3178576231002808e-01 4.5046058297157288e-01</leafValues></_>
        <_>
          <internalNodes>
            0 -1 12 -1.6131917014718056e-02</internalNodes>
          <leafValues>
            5.3387653827667236e-01 -9.6134382486343384e-01</leafValues></_></weakClassifiers></_>
    <!-- stage 1 -->
    <_>
      <maxWeakCount>3</maxWeakCount>
      <stageThreshold>-1.2567957639694214e+00</stageThreshold>
      <weakClassifiers>
        <_>
          <internalNodes>
            0 -1 13 2.3507485166192055e-02</internalNodes>
          <leafValues>
            -8.8225030899047852e-01 6.1718750000000000e-01</leafValues></_>
        <_>
          <internalNodes>
            0 -1 7 3.3418901730328798e-03</internalNodes>
          <leafValues>
            -7.8383868932723999e-01 5.8543521165847778e-01</leafValues></_>
        <_>
          <internalNodes>
            0 -1 14 -1.2560529634356499e-02</internalNodes>
          <leafValues>
            4.0929329395294189e-01 -9.0138149261474609e-01</leafValues></_></weakClassifiers></_>
    <!-- stage 2 -->
    <_>
      <maxWeakCount>3</maxWeakCount>
      <stageThreshold>-1.4734386205673218e+00</stageThreshold>
      <weakClassifiers>
        <_>
          <internalNodes>
            0 -1 0 7.5869962573051453e-02</internalNodes>
          <leafValues>
            -8.9313638210296631e-01 7.7327936887741089e-01</leafValues></_>
        <_>
          <internalNodes>
            0 -1 3 -2.3092092014849186e-03</internalNodes>
          <leafValues>
            3.9344039559364319e-01 -9.3114054203033447e-01</leafValues></_>
        <_>
          <internalNodes>
            0 -1 10 -2.6833586394786835e-02</internalNodes>
          <leafValues>
            3.5083827376365662e-01 -9.6882462501525879e-01</leafValues></_></weakClassifiers></_>
    <!-- stage 3 -->
    <_>
      <maxWeakCount>2</maxWeakCount>
      <stageThreshold>-5.5069619417190552e-01</stageThreshold>
      <weakClassifiers>
        <_>
          <internalNodes>
            0 -1 8 -2.7821939438581467e-02</internalNodes>
          <leafValues>
            1. -8.6087691783905029e-01</leafValues></_>
        <_>
          <internalNodes>
            0 -1 5 2.4125315248966217e-02</internalNodes>
          <leafValues>
            -1. 3.1018069386482239e-01</leafValues></_></weakClassifiers></_>
    <!-- stage 4 -->
    <_>
      <maxWeakCount>3</maxWeakCount>
      <stageThreshold>-1.0941069126129150e+00</stageThreshold>
      <weakClassifiers>
        <_>
          <internalNodes>
            0 -1 4 1.3971224427223206e-02</internalNodes>
          <leafValues>
            -9.1082251071929932e-01 1.</leafValues></_>
        <_>
          <internalNodes>
            0 -1 2 1.1786168906837702e-03</internalNodes>
          <leafValues>
            1. -8.4066766500473022e-01</leafValues></_>
        <_>
          <internalNodes>
            0 -1 11 -1.6427066177129745e-02</internalNodes>
          <leafValues>
            6.5738332271575928e-01 -9.6378278732299805e-01</leafValues></_></weakClassifiers></_>
    <!-- stage 5 -->
    <_>
      <maxWeakCount>1</maxWeakCount>
      <stageThreshold>1.</stageThreshold>
      <weakClassifiers>
        <_>
          <internalNodes>
            0 -1 1 2.7185612916946411e-01</internalNodes>
          <leafValues>
            1. -1.</leafValues></_></weakClassifiers></_></stages>
  <features>
    <_>
      <rects>
        <_>
          0 2 15 44 -1.</_>
        <_>
          5 2 5 44 3.</_></rects>
      <tilted>0</tilted></_>
    <_>
      <rects>
        <_>
          0 4 38 38 -1.</_>
        <_>
          0 23 38 19 2.</_></rects>
      <tilted>0</tilted></_>
    <_>
      <rects>
        <_>
          0 20 15 6 -1.</_>
        <_>
          0 23 15 3 2.</_></rects>
      <tilted>0</tilted></_>
    <_>
      <rects>
        <_>
          0 42 14 2 -1.</_>
        <_>
          7 42 7 2 2.</_></rects>
      <tilted>0</tilted></_>
    <_>
      <rects>
        <_>
          5 0 29 8 -1.</_>
        <_>
          5 4 29 4 2.</_></rects>
      <tilted>0</tilted></_>
    <_>
      <rects>
        <_>
          5 9 11 24 -1.</_>
        <_>
          5 21 11 12 2.</_></rects>
      <tilted>0</tilted></_>
    <_>
      <rects>
        <_>
          5 30 17 14 -1.</_>
        <_>
          5 37 17 7 2.</_></rects>
      <tilted>0</tilted></_>
    <_>
      <rects>
        <_>
          6 1 5 8 -1.</_>
        <_>
          6 5 5 4 2.</_></rects>
      <tilted>0</tilted></_>
    <_>
      <rects>
        <_>
          6 7 8 36 -1.</_>
        <_>
          10 7 4 36 2.</_></rects>
      <tilted>0</tilted></_>
    <_>
      <rects>
        <_>
          10 2 6 28 -1.</_>
        <_>
          10 16 6 14 2.</_></rects>
      <tilted>0</tilted></_>
    <_>
      <rects>
        <_>
          11 17 18 12 -1.</_>
        <_>
          20 17 9 12 2.</_></rects>
      <tilted>0</tilted></_>
    <_>
      <rects>
        <_>
          12 16 18 30 -1.</_>
        <_>
          18 16 6 30 3.</_></rects>
      <tilted>0</tilted></_>
    <_>
      <rects>
        <_>
          13 8 8 37 -1.</_>
        <_>
          17 8 4 37 2.</_></rects>
      <tilted>0</tilted></_>
    <_>
      <rects>
        <_>
          14 22 2 24 -1.</_>
        <_>
          14 30 2 8 3.</_></rects>
      <tilted>0</tilted></_>
    <_>
      <rects>
        <_>
          17 30 6 12 -1.</_>
        <_>
          17 36 6 6 2.</_></rects>
      <tilted>0</tilted></_></features></cascade>
</opencv_storage>
